{
  "main": {
    "bias": -2.1759985039794567,
    "w": [
      0.19124623391975798,
      0.14543051940746787,
      0.9605671240190103,
      1.7809346437879268,
      0.993122066509689,
      0.3569097479543156,
      -0.8461777600765947,
      1.1559408208510098,
      -0.9116888135617458,
      -0.5729385992035949,
      0.26737036440381934,
      -1.8975774201869948,
      -1.0174234703644627,
      -0.2
    ]
  },
  "renal": {
    "bias": -3.0,
    "w": [
      0.3321900111846824,
      -0.7467602609688477,
      0.010200469430059938,
      0.39817808918865594,
      0.03258237961709381,
      -0.8585199655553636,
      0.05825627416806625,
      -0.03927962310701339,
      1.8144126063427366,
      0.9171776160521548,
      0.46933936032281365,
      -0.21415711041198013,
      0.7803216078995857,
      -0.3
    ]
  },
  "side_short": {
    "bias": -2.3853876789544253,
    "w": [
      0.8343155944222438,
      1.2031730937806469,
      -1.734267945986752,
      -0.6659775097052519,
      -0.5071722871841596,
      0.18374600537163366,
      0.9918206337215818,
      0.18273944047199844,
      0.8235425837067047,
      1.1875415541197418,
      0.17521837971114337,
      0.8568909288352885,
      -2.2816815341041536,
      -0.35
    ]
  },
  "side": {
    "bias": -2.0,
    "w": [
      0.4,
      0.5,
      0.5,
      0.5,
      0.75,
      0.35,
      0.25,
      0.5,
      0.4,
      0.3,
      0.3,
      -0.55,
      -0.6,
      -0.25
    ]
  }
}