{
  "main": {
    "bias": -2.7834276572563335,
    "w": [
      0.11654390288878866,
      0.25854090645597877,
      0.4046688014143645,
      2.0046843241034935,
      0.8275809559532062,
      -0.17439599337990574,
      -1.159803099739206,
      2.343232805623965,
      -2.019278982218726,
      -1.2902508582253505,
      0.5198904610682242,
      -1.588701005700659,
      -1.0859222584417796,
      -0.2
    ]
  },
  "renal": {
    "bias": -2.92425229114048,
    "w": [
      0.9235607251008916,
      -1.8340610325238873,
      -0.013215343987728334,
      2.136203258899475,
      -1.6719626165715107,
      -0.7086194161681029,
      0.1057830774692672,
      -0.79928909917715,
      1.1811654291099858,
      -0.4737570647712852,
      -0.08199550485211139,
      0.019465821644300257,
      2.276799639312884,
      -0.3
    ]
  },
  "side_short": {
    "bias": -1.2621977920842722,
    "w": [
      0.8569037600960498,
      0.3817756007121238,
      -0.37226639283135704,
      -1.9215294830287433,
      -0.4800530125557046,
      -2.515706399011912,
      1.854527400804554,
      -0.953753789816732,
      0.7368172952284754,
      0.2951476755307005,
      -0.14882574490810696,
      1.6648109994817148,
      1.1084122059509256,
      -0.20674232769003162
    ]
  },
  "side": {
    "bias": -2.996716144221524,
    "w": [
      0.9392957108843631,
      0.2535971311343665,
      -1.1025185168544436,
      1.5132086058012009,
      -0.7996771617227904,
      0.00579069355670995,
      0.07620119278444913,
      -1.1271557788653368,
      1.6439954134224104,
      1.334960679045405,
      0.45804279646342466,
      -0.9609748686166436,
      0.3895252377526688,
      -0.19410039883157595
    ]
  }
}